{
  "policy_type": "mlp_contextual_bandit",
  "feature_dim": 9,
  "action_names": [
    "flat",
    "front_heavy",
    "front_aggressive",
    "entropy_proportional",
    "entropy_sharp"
  ],
  "feature_mean": [
    1.2087924480438232,
    0.6820168495178223,
    0.3281919062137604,
    1.963892936706543,
    0.11683584004640579,
    2.9258921146392822,
    0.7422620058059692,
    128.0,
    15.0
  ],
  "feature_std": [
    0.9074472188949585,
    0.35010775923728943,
    0.5183007121086121,
    1.2668216228485107,
    0.08532494306564331,
    0.3126906752586365,
    0.17498163878917694,
    1.0,
    1.0
  ],
  "state_dict": {
    "net.0.weight": [
      [
        -0.20135188102722168,
        0.1397562026977539,
        -0.4305416941642761,
        -0.2692824602127075,
        -0.11307675391435623,
        0.1986195147037506,
        0.016045046970248222,
        0.02397407777607441,
        -1.3003570442648993e-11
      ],
      [
        0.11375254392623901,
        -0.0566072054207325,
        -0.09308715909719467,
        -0.27599889039993286,
        -0.16412274539470673,
        -0.06338509917259216,
        -0.13205569982528687,
        6.402875442290679e-05,
        0.005102686118334532
      ],
      [
        -0.4734528064727783,
        -0.2719915211200714,
        -0.053491514176130295,
        0.19931215047836304,
        -0.1240488663315773,
        0.3200380504131317,
        -0.07750432193279266,
        -1.465239388154238e-12,
        0.041507504880428314
      ],
      [
        -0.5147711038589478,
        -0.2504251301288605,
        -0.2091880738735199,
        -0.10556016862392426,
        0.35932591557502747,
        -0.18353447318077087,
        -0.153794065117836,
        -0.012850773520767689,
        -0.04705570265650749
      ],
      [
        -0.5883210897445679,
        0.3423241078853607,
        0.045819204300642014,
        0.22427766025066376,
        0.09041620790958405,
        -0.10064946860074997,
        -0.019023310393095016,
        -0.046532392501831055,
        -0.015339942649006844
      ],
      [
        -0.3798503279685974,
        0.1270560771226883,
        0.03786483034491539,
        -0.20080143213272095,
        -0.037697188556194305,
        0.24680203199386597,
        0.31464719772338867,
        6.82486715959385e-05,
        -4.790533247867046e-11
      ],
      [
        0.05862824618816376,
        -0.3211556077003479,
        -0.0993405133485794,
        -0.34737053513526917,
        -0.3034116327762604,
        -0.24559897184371948,
        0.22594283521175385,
        8.424669795203954e-05,
        -0.00466876570135355
      ],
      [
        -0.017894500866532326,
        0.30597615242004395,
        -0.23222661018371582,
        0.09699934720993042,
        0.18627405166625977,
        0.2333078384399414,
        0.338491827249527,
        -0.021033629775047302,
        -1.5551397154922597e-05
      ],
      [
        -0.07707183808088303,
        0.39424610137939453,
        0.1003124788403511,
        0.32661595940589905,
        0.1302596926689148,
        -0.14208883047103882,
        -0.11895553022623062,
        -0.006723454222083092,
        -0.046215835958719254
      ],
      [
        0.2201087325811386,
        0.3626866638660431,
        -0.530816376209259,
        0.14190424978733063,
        0.05048695206642151,
        0.09781717509031296,
        -0.3053077459335327,
        3.984562135883607e-05,
        -0.0046660685911774635
      ],
      [
        -0.09081092476844788,
        0.07501116394996643,
        0.07138313353061676,
        0.05922509357333183,
        -0.36950692534446716,
        -0.2913784980773926,
        0.20113250613212585,
        4.485772864271098e-10,
        -0.02226019836962223
      ],
      [
        -0.40742120146751404,
        0.20628373324871063,
        0.052424218505620956,
        -0.22113537788391113,
        -0.13327670097351074,
        -0.3930623531341553,
        0.028862234205007553,
        -0.018847331404685974,
        -0.02112744189798832
      ],
      [
        -0.42633768916130066,
        0.02647573873400688,
        -0.3006630837917328,
        0.15272019803524017,
        -0.11613224446773529,
        0.33850765228271484,
        0.19145938754081726,
        -0.03129514306783676,
        8.455321998113163e-10
      ],
      [
        -0.3417378067970276,
        -0.019069641828536987,
        -0.07226809859275818,
        0.12437064200639725,
        0.1445784568786621,
        -0.18492135405540466,
        0.12219790369272232,
        -0.05127748101949692,
        -0.004688280168920755
      ],
      [
        -0.2837049663066864,
        -0.2886095345020294,
        -0.30712461471557617,
        -0.36272019147872925,
        -0.13497896492481232,
        0.11533690989017487,
        -0.21239325404167175,
        -1.792548314644149e-13,
        0.014617682434618473
      ],
      [
        -0.2972298860549927,
        0.10053469240665436,
        -0.10322634130716324,
        0.13062064349651337,
        0.2663232386112213,
        0.2790652811527252,
        0.05131450667977333,
        0.04943001642823219,
        -9.730440411748198e-12
      ],
      [
        -0.5084457993507385,
        -0.2599959373474121,
        0.06961177289485931,
        -0.05314764380455017,
        -0.1862410306930542,
        -0.32645079493522644,
        -0.2289695292711258,
        -0.03140696510672569,
        6.625055365416799e-11
      ],
      [
        0.08770381659269333,
        0.3000985383987427,
        -0.5139284729957581,
        0.2911664545536041,
        -0.15159600973129272,
        0.062192317098379135,
        -0.21742112934589386,
        3.2197169930192615e-10,
        3.4134284288001027e-10
      ],
      [
        -0.49665483832359314,
        -0.389881432056427,
        -0.2152227908372879,
        -0.055624037981033325,
        -0.18577033281326294,
        0.05548209697008133,
        -0.30222854018211365,
        1.0201230485340496e-11,
        0.03707902878522873
      ],
      [
        -0.41296789050102234,
        0.2870466411113739,
        0.0029616127721965313,
        -0.33017101883888245,
        0.2452540397644043,
        -0.008341913111507893,
        -0.12380823493003845,
        0.024903908371925354,
        -0.026087824255228043
      ],
      [
        -0.4030575454235077,
        -0.06512588262557983,
        0.15785959362983704,
        0.11794712394475937,
        0.23481981456279755,
        0.05115169659256935,
        0.018442323431372643,
        -5.244437106810551e-10,
        -0.028399836272001266
      ],
      [
        0.06395363807678223,
        0.379607230424881,
        0.1382606029510498,
        -0.17266780138015747,
        0.14161966741085052,
        -0.22197559475898743,
        -0.2971244156360626,
        -0.004156444221735001,
        2.6228156002616743e-06
      ],
      [
        -0.38419052958488464,
        -0.1313016712665558,
        -0.14292272925376892,
        0.13938303291797638,
        -0.3085704743862152,
        -0.3143286406993866,
        -0.10171861201524734,
        0.012979310005903244,
        -1.0118282261828426e-05
      ],
      [
        0.22466236352920532,
        0.2640877664089203,
        0.030109258368611336,
        0.09255097806453705,
        0.04310537129640579,
        0.17662382125854492,
        -0.18170322477817535,
        1.0923553728225954e-12,
        -2.6317691081967354e-11
      ],
      [
        -0.43966153264045715,
        -0.25242748856544495,
        0.12631496787071228,
        -0.3109869956970215,
        -0.04099699854850769,
        0.3422098457813263,
        0.16700197756290436,
        5.3986186181187445e-12,
        -0.034980062395334244
      ],
      [
        -0.012282284907996655,
        -0.36528441309928894,
        -0.25783371925354004,
        -0.20014208555221558,
        -0.1170499250292778,
        -0.06386283785104752,
        0.3173207938671112,
        1.7924998291229954e-11,
        0.03982028737664223
      ],
      [
        0.11008427292108536,
        -0.23906229436397552,
        0.06273118406534195,
        -0.22923575341701508,
        -0.11628442257642746,
        0.24702565371990204,
        0.028843315318226814,
        0.018506193533539772,
        -1.583013187200777e-07
      ],
      [
        -0.25240182876586914,
        0.09008023142814636,
        -0.414004921913147,
        0.211026132106781,
        -0.2739064693450928,
        -0.00769395288079977,
        -0.04703313112258911,
        -0.0018800374818965793,
        -6.676623143242466e-11
      ],
      [
        0.10005823522806168,
        -0.22025980055332184,
        -0.3660597503185272,
        -0.22019077837467194,
        -0.4108574092388153,
        0.3256531357765198,
        -0.19781194627285004,
        -0.009951597079634666,
        -0.0038269234355539083
      ],
      [
        0.09717217832803726,
        0.3077644407749176,
        0.19772644340991974,
        0.19668859243392944,
        -0.0203957948833704,
        0.04512093961238861,
        -0.013163674622774124,
        0.02809877321124077,
        1.0416441043048508e-08
      ],
      [
        -0.35668790340423584,
        -0.2555972635746002,
        -0.482140451669693,
        0.011166898533701897,
        -0.21007883548736572,
        -0.35243597626686096,
        0.30267325043678284,
        -0.008475449867546558,
        2.112184732672162e-11
      ],
      [
        -0.1240324079990387,
        -0.08105882257223129,
        -0.36254623532295227,
        -0.3263649344444275,
        0.2541702389717102,
        0.015161576680839062,
        0.27720996737480164,
        -1.3665761571246549e-06,
        -6.02791772053024e-08
      ]
    ],
    "net.0.bias": [
      0.1039709821343422,
      -0.0354173369705677,
      0.012178251519799232,
      0.27384909987449646,
      0.359951376914978,
      0.17544230818748474,
      0.05512792244553566,
      -0.008002359420061111,
      0.4826849400997162,
      -0.06966345012187958,
      0.3354903757572174,
      0.08167248964309692,
      0.10985548049211502,
      0.29791125655174255,
      9.744415001478046e-05,
      0.3383084237575531,
      0.2539539635181427,
      -0.05160864070057869,
      0.2390395849943161,
      0.35665661096572876,
      0.4078289568424225,
      0.14180131256580353,
      -0.12844811379909515,
      0.17617513239383698,
      0.274953693151474,
      0.01893175207078457,
      0.2163652628660202,
      0.3972626030445099,
      -0.01787554658949375,
      0.261448472738266,
      0.31711795926094055,
      0.18333953619003296
    ],
    "net.2.weight": [
      [
        0.14557866752147675,
        0.06618646532297134,
        0.030662627890706062,
        0.18877623975276947,
        0.3439445197582245,
        0.2977973222732544,
        0.18453039228916168,
        0.0702175423502922,
        0.22709710896015167,
        -0.05316486954689026,
        -0.04492742568254471,
        -0.02964549884200096,
        0.39055076241493225,
        0.28383657336235046,
        -0.00876836758106947,
        0.26306411623954773,
        0.26487696170806885,
        0.21719393134117126,
        0.28748059272766113,
        0.33499646186828613,
        0.2514313757419586,
        0.036550283432006836,
        0.28330516815185547,
        0.17296244204044342,
        0.019831782206892967,
        0.2515580654144287,
        0.1645752340555191,
        0.26538679003715515,
        -0.030228937044739723,
        0.1472545862197876,
        0.05849580839276314,
        0.2637905478477478
      ],
      [
        0.09297333657741547,
        0.11382387578487396,
        0.1971091479063034,
        0.23638394474983215,
        0.15673591196537018,
        0.22119814157485962,
        -0.043784767389297485,
        0.09242431819438934,
        0.034138329327106476,
        -0.1333700567483902,
        -0.04005306586623192,
        0.2578507363796234,
        0.3061664402484894,
        0.3326543867588043,
        0.24937571585178375,
        0.040420301258563995,
        0.0033995260018855333,
        0.019374404102563858,
        0.009601416066288948,
        0.3160129487514496,
        0.20083673298358917,
        0.018531372770667076,
        -0.03684862703084946,
        -0.0178984384983778,
        0.2650335729122162,
        0.2356836497783661,
        0.2023163139820099,
        0.30055585503578186,
        0.23682205379009247,
        0.05898532271385193,
        0.19045940041542053,
        0.2800304889678955
      ],
      [
        0.07590477168560028,
        0.024952400475740433,
        0.2437155544757843,
        0.29633525013923645,
        0.2686285972595215,
        0.18346932530403137,
        -0.11447745561599731,
        -0.2964673936367035,
        0.14639036357402802,
        -0.3293297290802002,
        -0.19975924491882324,
        0.11588139832019806,
        0.38682520389556885,
        0.24125945568084717,
        -0.13355526328086853,
        0.3694465458393097,
        0.17187876999378204,
        -0.20039856433868408,
        -0.027493685483932495,
        0.3921225666999817,
        0.4259117841720581,
        -0.08423568308353424,
        0.22617416083812714,
        0.06261440366506577,
        -0.009491688571870327,
        -0.007210612762719393,
        -0.19563104212284088,
        0.13978007435798645,
        0.007445118390023708,
        0.07192511111497879,
        -0.10816678404808044,
        -0.04312392324209213
      ],
      [
        0.09595270454883575,
        0.0073817092925310135,
        0.20791050791740417,
        0.3622520864009857,
        0.24500325322151184,
        0.04820343852043152,
        0.09724560379981995,
        0.12191489338874817,
        0.23643667995929718,
        -0.12996503710746765,
        0.07495612651109695,
        -0.00428358418866992,
        0.174251988530159,
        0.24515241384506226,
        -0.0018362643895670772,
        0.2866997718811035,
        0.29863032698631287,
        0.04949578270316124,
        0.03662855178117752,
        0.155082568526268,
        0.3812905550003052,
        -0.04088166356086731,
        0.22906748950481415,
        -0.08321933448314667,
        -0.017735395580530167,
        -0.06990684568881989,
        0.06345514953136444,
        0.3053198456764221,
        -0.09041920304298401,
        0.23765963315963745,
        0.0676170140504837,
        0.1896420419216156
      ],
      [
        0.135602667927742,
        -0.10480330139398575,
        0.30333465337753296,
        0.2521846294403076,
        0.36255067586898804,
        0.2257445752620697,
        -0.028256850317120552,
        0.20082567632198334,
        0.12885808944702148,
        0.127708300948143,
        -0.040096066892147064,
        0.06696673482656479,
        0.027935422956943512,
        0.08296709507703781,
        0.14501456916332245,
        0.030540822073817253,
        0.1772557646036148,
        0.1431266963481903,
        0.14567945897579193,
        0.05526662617921829,
        0.08843297511339188,
        0.027926260605454445,
        0.20638775825500488,
        0.2481386661529541,
        0.22297681868076324,
        0.07931635528802872,
        0.14584949612617493,
        -0.020606230944395065,
        -0.07010047137737274,
        0.16528597474098206,
        0.01811702735722065,
        0.21051673591136932
      ],
      [
        -0.19050879776477814,
        -0.13272373378276825,
        -0.22362765669822693,
        0.036405157297849655,
        -0.06962910294532776,
        0.07153388857841492,
        0.055151984095573425,
        0.043958261609077454,
        -0.04751252755522728,
        -0.11088449507951736,
        -0.09007749706506729,
        -0.029923301190137863,
        0.013593322597444057,
        -0.17127180099487305,
        0.08459578454494476,
        -0.07747834920883179,
        -0.20620660483837128,
        -0.15730741620063782,
        0.09462522715330124,
        0.09351153671741486,
        -0.21653041243553162,
        0.06311067193746567,
        0.021768609061837196,
        0.026600306853652,
        0.09031196683645248,
        -0.15137089788913727,
        0.0033878537360578775,
        0.012638293206691742,
        -0.12156180292367935,
        -0.006884785369038582,
        -0.10313675552606583,
        0.05450538918375969
      ],
      [
        0.09304788708686829,
        -0.01998535543680191,
        0.20952977240085602,
        0.258930504322052,
        0.16459441184997559,
        0.16069814562797546,
        0.18688520789146423,
        0.02174040488898754,
        0.21970508992671967,
        -0.020207157358527184,
        0.1706383377313614,
        0.00401898892596364,
        0.11451032012701035,
        0.10253770649433136,
        0.2837280333042145,
        0.16172508895397186,
        0.14418597519397736,
        -0.058101315051317215,
        0.3220658600330353,
        0.3893236517906189,
        0.20353393256664276,
        -0.0334915816783905,
        0.01164625957608223,
        0.06478827446699142,
        0.09325254708528519,
        -0.018738528713583946,
        0.026188207790255547,
        0.22214126586914062,
        -0.013322582468390465,
        0.1309928447008133,
        0.09351038932800293,
        0.05084877461194992
      ],
      [
        -0.02234530821442604,
        0.11114590615034103,
        -0.17395265400409698,
        -0.031838417053222656,
        -0.11469098180532455,
        0.11744680255651474,
        -0.20800676941871643,
        -0.21500131487846375,
        0.1277061253786087,
        -0.1561482697725296,
        -0.01417570374906063,
        -0.06156373769044876,
        -0.09660450369119644,
        -0.08762161433696747,
        0.06972905248403549,
        -0.03632957115769386,
        -0.21134980022907257,
        -0.15308378636837006,
        -0.1022387221455574,
        0.03602907434105873,
        -0.1553908884525299,
        0.11551687866449356,
        -0.07641933858394623,
        -0.0872914269566536,
        0.09431192278862,
        0.04547853395342827,
        0.10932128876447678,
        0.0533643513917923,
        -0.10154206305742264,
        -0.17082533240318298,
        -0.054844245314598083,
        0.09869524836540222
      ],
      [
        0.06658031791448593,
        -0.10903288424015045,
        0.23281800746917725,
        0.32587236166000366,
        0.12886133790016174,
        -0.012498239986598492,
        -0.07423903793096542,
        0.09647667407989502,
        0.10340754687786102,
        -0.04957910627126694,
        0.13345207273960114,
        0.1807532012462616,
        0.3367038667201996,
        0.2815572917461395,
        0.0838647335767746,
        0.004034579265862703,
        -0.03713911026716232,
        0.21023698151111603,
        0.2024848312139511,
        0.24502399563789368,
        0.07370307296514511,
        0.2487255185842514,
        0.29683661460876465,
        0.23198117315769196,
        -0.025254439562559128,
        0.029547061771154404,
        -0.0339869000017643,
        0.3120531439781189,
        0.008665304630994797,
        0.006432803813368082,
        0.2054198533296585,
        0.03577549755573273
      ],
      [
        0.02816292643547058,
        0.030645962804555893,
        0.13515673577785492,
        0.003929764963686466,
        0.3224796950817108,
        0.04721807315945625,
        0.14046676456928253,
        0.2060461789369583,
        0.20347413420677185,
        0.06461379677057266,
        0.2423807680606842,
        0.13231229782104492,
        0.1048789694905281,
        0.3073136806488037,
        0.14241424202919006,
        -0.018660958856344223,
        0.06117599830031395,
        -0.0760384351015091,
        0.267781138420105,
        0.13432879745960236,
        0.04663694277405739,
        0.07072272151708603,
        0.23619399964809418,
        0.1178143247961998,
        0.16557474434375763,
        0.10504025965929031,
        0.13680848479270935,
        0.09757257997989655,
        0.0076929605565965176,
        -0.08026289194822311,
        -0.029682379215955734,
        0.1890895515680313
      ],
      [
        0.031716037541627884,
        0.049045462161302567,
        0.23563875257968903,
        0.21131294965744019,
        0.14650079607963562,
        0.31377339363098145,
        -0.034912820905447006,
        0.17416445910930634,
        0.021884238347411156,
        -0.026110626757144928,
        0.19007369875907898,
        0.04563523456454277,
        0.38951295614242554,
        0.06643514335155487,
        -0.03933311998844147,
        0.15087458491325378,
        0.1615971475839615,
        0.18009249866008759,
        0.055153388530015945,
        0.2860872149467468,
        0.3173569440841675,
        0.04338155686855316,
        0.2499094158411026,
        -0.08256303519010544,
        0.15187986195087433,
        0.24616500735282898,
        0.05271203815937042,
        0.32919842004776,
        0.008843181654810905,
        0.21898414194583893,
        -0.04705151915550232,
        0.10808242112398148
      ],
      [
        -0.07278785854578018,
        0.021178733557462692,
        0.0026904128026217222,
        0.09011594951152802,
        -0.08808234333992004,
        -0.05216733738780022,
        0.0809633731842041,
        -0.09699703752994537,
        0.09193295240402222,
        -0.16456599533557892,
        -0.07038213312625885,
        -0.05865362286567688,
        0.031427450478076935,
        0.06264473497867584,
        -0.07504189759492874,
        -0.19424346089363098,
        0.03864191845059395,
        0.0009332127519883215,
        0.02287745662033558,
        -0.16382835805416107,
        0.051371172070503235,
        0.09151458740234375,
        -0.038606759160757065,
        -0.24061715602874756,
        0.07855545729398727,
        -0.1706385314464569,
        -0.002092977287247777,
        -0.021305246278643608,
        -0.13221190869808197,
        -0.01459447294473648,
        -0.19889314472675323,
        0.0009291742462664843
      ],
      [
        -0.13979068398475647,
        -0.046390093863010406,
        -0.020249173045158386,
        0.118134506046772,
        -0.1169375330209732,
        0.06837856769561768,
        -0.056488972157239914,
        -0.10221217572689056,
        -0.1791459172964096,
        -0.17702734470367432,
        0.11481232941150665,
        -0.10490836948156357,
        -0.020772581920027733,
        0.016676483675837517,
        0.08445845544338226,
        0.12183879315853119,
        0.10441873222589493,
        -0.15780659019947052,
        -0.06367398053407669,
        -0.1461661159992218,
        -0.13863742351531982,
        -0.0005788590642623603,
        0.10296313464641571,
        -0.17243258655071259,
        0.07347604632377625,
        -0.12194377183914185,
        -0.06473709642887115,
        0.11021460592746735,
        -0.07540842145681381,
        -0.0428127758204937,
        -0.15192276239395142,
        0.12734127044677734
      ],
      [
        0.10556995868682861,
        -0.07532612979412079,
        0.21234634518623352,
        0.03347586840391159,
        0.04887211322784424,
        0.143241748213768,
        0.2240525782108307,
        0.003550467547029257,
        0.2087562531232834,
        0.19421251118183136,
        0.21562133729457855,
        0.02237456478178501,
        0.17857345938682556,
        0.09462068229913712,
        -0.033187299966812134,
        0.17170248925685883,
        0.25558483600616455,
        0.19722017645835876,
        0.14065656065940857,
        0.2158270925283432,
        0.1751304566860199,
        0.22200655937194824,
        0.05660160630941391,
        -0.0458538755774498,
        0.1487383097410202,
        0.2000214010477066,
        -0.07489800453186035,
        0.312588632106781,
        0.14723502099514008,
        -0.03320165351033211,
        0.07558181136846542,
        0.273136168718338
      ],
      [
        -0.016765223816037178,
        -0.0368468277156353,
        0.22789756953716278,
        0.030362004414200783,
        0.3416686952114105,
        0.22384917736053467,
        0.1676727533340454,
        -0.09030438214540482,
        0.32725197076797485,
        -0.09896872192621231,
        0.26619818806648254,
        -0.05178651586174965,
        0.06870913505554199,
        0.28934377431869507,
        0.11705692112445831,
        0.2260124534368515,
        0.03189246356487274,
        -0.05791161581873894,
        0.077183797955513,
        0.04035796970129013,
        0.3547644019126892,
        0.11356260627508163,
        0.12460758537054062,
        0.10962893813848495,
        0.28756630420684814,
        0.11711502820253372,
        0.0023059402592480183,
        0.10550589114427567,
        -0.0556633323431015,
        -0.04490996524691582,
        0.08791575580835342,
        0.08719296008348465
      ],
      [
        0.19479767978191376,
        -0.03026147000491619,
        0.2947846055030823,
        0.019683271646499634,
        0.1772652417421341,
        0.28611576557159424,
        0.25393232703208923,
        -0.05160699039697647,
        0.14541928470134735,
        0.06112741678953171,
        0.008974350057542324,
        0.04718061909079552,
        0.23958797752857208,
        0.01810486428439617,
        0.1300498992204666,
        0.23208436369895935,
        0.04275794327259064,
        0.19166739284992218,
        0.10233448445796967,
        0.24492712318897247,
        0.383556991815567,
        0.025059720501303673,
        0.22092892229557037,
        0.020918022841215134,
        0.08607448637485504,
        0.059479065239429474,
        0.07048274576663971,
        0.075371153652668,
        0.11848833411931992,
        0.08862236142158508,
        0.21657158434391022,
        0.07821024954319
      ],
      [
        0.13759079575538635,
        -0.019413435831665993,
        0.009099136106669903,
        0.2209450602531433,
        0.20799537003040314,
        0.05813082307577133,
        0.01921425200998783,
        0.097407266497612,
        0.08709106594324112,
        0.1585993468761444,
        0.10367593169212341,
        0.17926666140556335,
        0.272832989692688,
        0.10262896865606308,
        0.18041548132896423,
        0.2947693467140198,
        0.12472736835479736,
        0.08478060364723206,
        0.12389123439788818,
        0.29453614354133606,
        0.14897653460502625,
        -0.010221566073596478,
        0.20714737474918365,
        -0.07991635799407959,
        0.11637532711029053,
        0.008780566975474358,
        0.1888430416584015,
        -0.017204197123646736,
        0.18620169162750244,
        0.25872495770454407,
        0.14292044937610626,
        0.10331875085830688
      ],
      [
        0.29750683903694153,
        -0.02352318912744522,
        0.1436012089252472,
        0.07623520493507385,
        0.1537705957889557,
        0.1672036498785019,
        0.10687056928873062,
        0.017600635066628456,
        -0.06278615444898605,
        0.0517122820019722,
        0.08764529228210449,
        0.13761182129383087,
        0.32970693707466125,
        0.313338965177536,
        0.0036558606661856174,
        0.14766280353069305,
        0.049816083163022995,
        -0.1140764057636261,
        -0.006251907907426357,
        0.33349981904029846,
        0.31544411182403564,
        0.17466241121292114,
        0.2278621345758438,
        -0.06785108149051666,
        0.13791967928409576,
        0.25793951749801636,
        -0.018718024715781212,
        0.3020855784416199,
        0.1286557912826538,
        0.20549757778644562,
        0.03434673324227333,
        0.19646623730659485
      ],
      [
        -0.03772152215242386,
        0.03645214065909386,
        0.21535414457321167,
        0.19942916929721832,
        0.3336232006549835,
        0.30414509773254395,
        0.24132104218006134,
        0.17241507768630981,
        0.25134286284446716,
        0.020237522199749947,
        -0.037599291652441025,
        0.047610897570848465,
        0.17336176335811615,
        0.05409004166722298,
        0.19236907362937927,
        0.2271595597267151,
        0.14366242289543152,
        0.09095855802297592,
        0.27039778232574463,
        0.23440012335777283,
        0.10336676239967346,
        -0.03450595214962959,
        0.2053471952676773,
        0.10277719050645828,
        0.1996021866798401,
        -0.08514992892742157,
        -0.08784136921167374,
        0.2548596262931824,
        0.19183947145938873,
        -0.06471353024244308,
        0.1747259497642517,
        -0.020518891513347626
      ],
      [
        0.10652180761098862,
        0.030300764366984367,
        0.1352207213640213,
        -0.1964663863182068,
        -0.1987464427947998,
        0.08734599500894547,
        0.12579840421676636,
        0.07267501950263977,
        0.0842600166797638,
        -0.17518426477909088,
        0.09264769405126572,
        -0.1944544017314911,
        -0.001800796133466065,
        -0.14702410995960236,
        -0.09163515269756317,
        -0.0019805761985480785,
        -0.09790489077568054,
        -0.053525883704423904,
        -0.1916370540857315,
        -0.19360056519508362,
        0.03223394975066185,
        -0.1093028262257576,
        -0.1227952390909195,
        -0.11222438514232635,
        -0.1761832982301712,
        -0.17211714386940002,
        0.06750459223985672,
        0.060126688331365585,
        -0.008210194297134876,
        -0.1382177323102951,
        0.03048853389918804,
        -0.0229231808334589
      ],
      [
        0.009019138291478157,
        0.09053148329257965,
        0.3310866951942444,
        5.2266146667534485e-05,
        0.028473034501075745,
        0.15987303853034973,
        0.21829181909561157,
        -0.05932525917887688,
        0.16942135989665985,
        0.1652805060148239,
        0.15230926871299744,
        0.15685829520225525,
        0.38788893818855286,
        0.2734358310699463,
        0.01817924529314041,
        0.1996709108352661,
        0.22342664003372192,
        0.20489713549613953,
        -0.0393778532743454,
        0.28640812635421753,
        0.21363189816474915,
        -0.08294110745191574,
        0.1761118322610855,
        -0.020510151982307434,
        0.15595073997974396,
        -0.018723374232649803,
        -0.04553036764264107,
        0.14887624979019165,
        0.026607265695929527,
        0.1904340386390686,
        0.1353311687707901,
        0.2608201205730438
      ],
      [
        -0.0032999133691191673,
        -0.08131122589111328,
        0.06844253093004227,
        -0.024279456585645676,
        0.0009920261800289154,
        -0.09274975210428238,
        -0.022957656532526016,
        -0.05941624566912651,
        -0.0441657155752182,
        -0.1660749465227127,
        -0.028231440111994743,
        -0.16906075179576874,
        -0.08002252131700516,
        0.07235924899578094,
        -0.16075491905212402,
        -0.1557551473379135,
        -0.0771927684545517,
        -0.07817001640796661,
        -0.008632388897240162,
        -0.012975269928574562,
        0.05302963778376579,
        -0.14614397287368774,
        -0.03752844035625458,
        0.06295285373926163,
        0.11687586456537247,
        -0.03597714379429817,
        -0.13471204042434692,
        0.015879197046160698,
        0.060557518154382706,
        -0.13861308991909027,
        -0.12937404215335846,
        0.047921549528837204
      ],
      [
        0.12454715371131897,
        -0.1120956614613533,
        0.06948227435350418,
        0.2481941282749176,
        0.1420556902885437,
        0.2648065686225891,
        0.22925344109535217,
        0.07338450849056244,
        0.1131715252995491,
        -0.021983908489346504,
        0.09352811425924301,
        0.15242528915405273,
        0.08085594326257706,
        0.11839091032743454,
        -0.028914617374539375,
        0.289527028799057,
        0.022022156044840813,
        0.20075204968452454,
        0.09357982873916626,
        0.08731156587600708,
        0.34110864996910095,
        0.11021959036588669,
        0.2547267973423004,
        0.1430448740720749,
        -0.03326869010925293,
        0.21243935823440552,
        0.06259575486183167,
        0.08574405312538147,
        0.19821415841579437,
        0.2132698893547058,
        -0.02916693687438965,
        0.11334705352783203
      ],
      [
        0.2590677738189697,
        0.0817655697464943,
        0.29706084728240967,
        0.11500480026006699,
        0.149732768535614,
        0.270572692155838,
        0.12822793424129486,
        0.19383180141448975,
        0.08450350165367126,
        -0.09237274527549744,
        0.058262135833501816,
        -0.06057467684149742,
        0.27709001302719116,
        0.3031843900680542,
        0.13730166852474213,
        0.18852970004081726,
        0.2086377590894699,
        -0.10633968561887741,
        0.2943112552165985,
        0.029053496196866035,
        0.1786709874868393,
        0.04612000659108162,
        0.2662264406681061,
        0.09355129301548004,
        0.17935658991336823,
        -0.06269471347332001,
        0.124529629945755,
        0.15053078532218933,
        0.12378130108118057,
        0.20399650931358337,
        0.18630164861679077,
        0.09494228661060333
      ],
      [
        1.4098501012471676e-12,
        -1.0069028348880238e-06,
        3.031224160565671e-10,
        3.3828166579041863e-06,
        -6.735161872661877e-10,
        6.558702239090053e-07,
        -5.235238909051532e-10,
        -3.591209968289988e-11,
        -2.3475867517303017e-12,
        -0.0009047201601788402,
        -1.102670255451188e-12,
        1.3712543253663334e-11,
        8.4947873388308e-12,
        4.366332816141405e-12,
        0.00014994946832302958,
        5.412909740698524e-05,
        -1.0098638085764833e-05,
        -1.663007176411213e-09,
        -0.00013953416782896966,
        -0.00040181170334108174,
        -1.0893280028012597e-10,
        1.638092873151864e-12,
        1.3652330377311728e-09,
        -0.001452950993552804,
        -1.2132114757257284e-10,
        1.903223828536582e-10,
        -0.0009852857328951359,
        -0.0015501327579841018,
        -7.647384461795248e-12,
        -3.53975519828964e-05,
        -0.0005563654704019427,
        -4.3537912858271355e-11
      ],
      [
        -0.05937837436795235,
        -0.1887573003768921,
        -0.15910661220550537,
        -0.020284850150346756,
        -0.19482064247131348,
        -0.05767668038606644,
        -0.14332403242588043,
        -0.13579736649990082,
        0.04382310062646866,
        -0.1532352864742279,
        -0.15960879623889923,
        0.07394347339868546,
        -0.000885159068275243,
        0.13301284611225128,
        -0.08177819848060608,
        -0.11767513304948807,
        -0.049393851310014725,
        -0.017092831432819366,
        0.10018423944711685,
        -0.2119731307029724,
        -0.04572172090411186,
        0.0558207705616951,
        -0.1305486261844635,
        -0.11913587152957916,
        0.05241899937391281,
        -0.1991923302412033,
        0.011858080513775349,
        -0.16859690845012665,
        0.05263115465641022,
        -0.1751076877117157,
        0.07818736881017685,
        -0.19453583657741547
      ],
      [
        0.1311982274055481,
        0.41847267746925354,
        0.11886772513389587,
        -0.5383977890014648,
        -0.3517691195011139,
        -0.021462082862854004,
        0.3440949320793152,
        0.5527501106262207,
        0.03737625479698181,
        0.4275006651878357,
        0.2523202896118164,
        0.42879676818847656,
        0.08368121087551117,
        0.06651122123003006,
        0.38611865043640137,
        0.2945623993873596,
        0.16879796981811523,
        0.4076882004737854,
        0.13859890401363373,
        -0.19837963581085205,
        -0.3676523268222809,
        0.29368898272514343,
        0.11324533820152283,
        0.2912636697292328,
        0.006750768981873989,
        0.35565775632858276,
        0.3600376844406128,
        -0.1467478722333908,
        0.46945613622665405,
        0.06446074694395065,
        0.3901720941066742,
        0.06415393948554993
      ],
      [
        0.017758725211024284,
        -0.09523352980613708,
        0.13258515298366547,
        0.3062509298324585,
        0.3641864061355591,
        -0.008755926042795181,
        0.08036438375711441,
        0.15310540795326233,
        0.208438903093338,
        0.18210631608963013,
        0.1013827845454216,
        0.006479560397565365,
        0.3328200876712799,
        0.10833307355642319,
        0.2017051875591278,
        0.1393052637577057,
        0.20286987721920013,
        0.2031542807817459,
        0.2914086878299713,
        0.02466203272342682,
        0.1386662870645523,
        0.01291589718312025,
        0.022929765284061432,
        0.24060699343681335,
        0.11117509752511978,
        -0.01598871871829033,
        0.004282838199287653,
        0.06395411491394043,
        0.15167640149593353,
        -0.06821361929178238,
        -0.03932682052254677,
        -0.04251177981495857
      ],
      [
        0.2178649604320526,
        0.1416788101196289,
        0.06551653891801834,
        0.23559799790382385,
        0.3780251741409302,
        0.16164064407348633,
        0.051499709486961365,
        0.04221275448799133,
        0.14677131175994873,
        0.13322056829929352,
        -0.009891574271023273,
        0.22199895977973938,
        0.31763872504234314,
        0.08247700333595276,
        0.26505735516548157,
        0.38007375597953796,
        0.0731748715043068,
        0.003188575617969036,
        0.23134702444076538,
        0.0778215155005455,
        0.42475569248199463,
        0.14778394997119904,
        0.2544839680194855,
        -0.07258456945419312,
        -0.009264633990824223,
        0.16737070679664612,
        0.15748634934425354,
        0.023253917694091797,
        -0.01349611021578312,
        -0.06543910503387451,
        0.007529712747782469,
        0.05701866000890732
      ],
      [
        0.28519153594970703,
        0.005789702758193016,
        0.2811952531337738,
        0.3543791174888611,
        0.31702396273612976,
        -0.007576406933367252,
        0.1740778237581253,
        0.10723192989826202,
        0.28700295090675354,
        -0.14174474775791168,
        0.21263724565505981,
        0.2682408094406128,
        0.07559622824192047,
        0.19985929131507874,
        0.268227219581604,
        0.08715058118104935,
        0.19589969515800476,
        0.1171955019235611,
        0.18741928040981293,
        0.38369232416152954,
        0.4694090485572815,
        0.23901815712451935,
        0.11631088703870773,
        0.22173446416854858,
        -0.02493434213101864,
        0.003604078898206353,
        0.050576113164424896,
        0.12793280184268951,
        0.24247074127197266,
        0.17023031413555145,
        0.24333606660366058,
        0.2559526860713959
      ],
      [
        -0.008654800243675709,
        0.026128672063350677,
        0.18495748937129974,
        0.19482477009296417,
        0.2840980887413025,
        0.06108090281486511,
        0.026130277663469315,
        0.2052222639322281,
        0.08106841892004013,
        -0.07390519976615906,
        0.2144688069820404,
        0.2315131425857544,
        0.15181146562099457,
        0.1139192134141922,
        -0.026000896468758583,
        0.0374341681599617,
        0.1818149834871292,
        -0.021799439564347267,
        0.25878775119781494,
        0.04099582880735397,
        0.2269098311662674,
        0.0910126343369484,
        0.2191634625196457,
        0.22206635773181915,
        0.23462291061878204,
        0.1684354841709137,
        -0.007581072393804789,
        0.03075726516544819,
        -0.07729477435350418,
        0.0963359847664833,
        0.2782788574695587,
        0.08608250319957733
      ],
      [
        -0.024503426626324654,
        -0.14750726521015167,
        0.02404600940644741,
        0.08958807587623596,
        -0.20128607749938965,
        -0.14856138825416565,
        0.10773057490587234,
        0.013840743340551853,
        -0.0397179052233696,
        0.008302111178636551,
        -0.054859645664691925,
        -0.14480142295360565,
        -0.1856672614812851,
        0.08559196442365646,
        -0.039005544036626816,
        -0.09291154146194458,
        -0.06712789833545685,
        -0.11624126136302948,
        -0.07264575362205505,
        -0.1721741259098053,
        0.10169907659292221,
        0.04711518809199333,
        -0.10525912791490555,
        -0.08928493410348892,
        0.057104308158159256,
        -0.09044080227613449,
        0.02285797707736492,
        0.022739702835679054,
        -0.12837904691696167,
        0.016797948628664017,
        -0.013229272328317165,
        0.12687063217163086
      ]
    ],
    "net.2.bias": [
      0.08577648550271988,
      0.09725012630224228,
      0.29642120003700256,
      0.035169269889593124,
      0.1457524299621582,
      0.11239459365606308,
      0.09552711993455887,
      0.12376242876052856,
      0.2849564254283905,
      0.2830057442188263,
      0.1604302078485489,
      0.10929135233163834,
      -0.10835050791501999,
      0.07371436059474945,
      0.23174798488616943,
      0.1572711169719696,
      0.22192391753196716,
      0.2931121289730072,
      0.01576056145131588,
      0.059670332819223404,
      0.2049698829650879,
      0.056988198310136795,
      0.23423725366592407,
      0.09285484254360199,
      -0.00015531775716226548,
      0.10862652957439423,
      -0.2956722676753998,
      0.2555012106895447,
      0.006203815340995789,
      0.13308238983154297,
      0.13227836787700653,
      0.004333150573074818
    ],
    "net.4.weight": [
      [
        0.15395645797252655,
        0.19351507723331451,
        0.19827139377593994,
        0.22977568209171295,
        0.3229987323284149,
        -0.06819359213113785,
        0.14294879138469696,
        -0.028004150837659836,
        0.3032056987285614,
        0.2790708541870117,
        0.16757799685001373,
        -0.0182455126196146,
        -0.08182234317064285,
        0.2644791007041931,
        0.14784294366836548,
        0.304237425327301,
        0.23399724066257477,
        0.30000823736190796,
        0.27725526690483093,
        -0.08625529706478119,
        0.19454066455364227,
        -0.04209739342331886,
        0.23749463260173798,
        0.1179589182138443,
        -6.157686339991475e-12,
        -0.09444856643676758,
        -0.6174719333648682,
        0.21025268733501434,
        0.2081652730703354,
        0.14581821858882904,
        0.2530088424682617,
        -0.05153602361679077
      ],
      [
        0.27183568477630615,
        0.15543553233146667,
        0.22513741254806519,
        0.19888241589069366,
        0.3430008888244629,
        0.16413632035255432,
        0.34718286991119385,
        0.02719278447329998,
        0.3121168613433838,
        0.032584987580776215,
        0.1414032131433487,
        0.031468603760004044,
        5.482382126401064e-13,
        0.07616965472698212,
        0.15836553275585175,
        0.1378892958164215,
        0.044078148901462555,
        0.22841323912143707,
        0.3351154029369354,
        7.670808988002875e-10,
        0.134349063038826,
        -0.0009106482611969113,
        0.0864531546831131,
        0.20142821967601776,
        1.4110357369645499e-05,
        -7.566806625725064e-10,
        0.24774973094463348,
        0.12087677419185638,
        0.21189235150814056,
        0.049503229558467865,
        0.08788067102432251,
        0.0017420343356207013
      ],
      [
        0.15538671612739563,
        0.21873411536216736,
        0.25333449244499207,
        0.12099303305149078,
        0.19861024618148804,
        0.09695834666490555,
        0.18283861875534058,
        0.029126858338713646,
        0.23180198669433594,
        0.04093270003795624,
        0.40873420238494873,
        0.17890086770057678,
        0.1362493485212326,
        0.19053608179092407,
        0.33986783027648926,
        0.07452938705682755,
        0.1881345957517624,
        0.20908355712890625,
        0.18162474036216736,
        0.0970313772559166,
        0.16737785935401917,
        -0.01173422485589981,
        0.19040413200855255,
        0.08166567981243134,
        -2.4657477448730702e-11,
        -0.1178666427731514,
        -0.1732252836227417,
        0.32934555411338806,
        0.4284069538116455,
        0.15970315039157867,
        0.2304522693157196,
        0.053591541945934296
      ],
      [
        0.3274906575679779,
        0.3086048364639282,
        0.16194479167461395,
        0.05499904230237007,
        -0.0012787653831765056,
        -0.039802007377147675,
        0.3162463903427124,
        0.10020453482866287,
        0.3341807425022125,
        0.27106061577796936,
        0.1829243004322052,
        -0.05911870300769806,
        0.1938246190547943,
        0.28768473863601685,
        0.24667808413505554,
        0.04984201118350029,
        0.2864786386489868,
        0.17145346105098724,
        0.26576921343803406,
        0.10835925489664078,
        0.24459321796894073,
        -0.12482909113168716,
        0.06476720422506332,
        0.2501746714115143,
        4.464749056576345e-11,
        -0.12610723078250885,
        -0.18386022746562958,
        0.15663862228393555,
        0.3030955195426941,
        0.009588675573468208,
        0.203854501247406,
        -0.04204646125435829
      ],
      [
        0.13923531770706177,
        0.16791100800037384,
        0.2188587337732315,
        0.3401292562484741,
        0.19049285352230072,
        0.17888078093528748,
        0.2662647068500519,
        0.003854535287246108,
        0.1076073870062828,
        0.020712828263640404,
        0.20345564186573029,
        -0.12816083431243896,
        -0.003974883817136288,
        0.2225172370672226,
        0.20201316475868225,
        0.13255296647548676,
        0.32896479964256287,
        0.3059176802635193,
        0.17568984627723694,
        -0.04345007613301277,
        0.32750824093818665,
        0.17097575962543488,
        0.05977050960063934,
        0.17101174592971802,
        -1.1603417011951667e-11,
        -0.03650524467229843,
        -0.028248341754078865,
        0.20459702610969543,
        0.38683459162712097,
        0.19095571339130402,
        0.1695091426372528,
        -0.08262121677398682
      ]
    ],
    "net.4.bias": [
      0.04240434244275093,
      0.19761919975280762,
      0.2058197557926178,
      0.10438982397317886,
      0.2938273847103119
    ]
  },
  "hidden_dim": 32,
  "activation": "relu",
  "metadata": {
    "num_records": 4400,
    "epochs": 400,
    "learning_rate": 0.001,
    "weight_decay": 0.0001,
    "seed": 0
  }
}