{
  "policy_type": "linear_contextual_bandit",
  "feature_dim": 11,
  "action_names": [
    "flat_b0.50",
    "flat_b0.75",
    "action_2",
    "action_3",
    "front_heavy_b0.75",
    "front_heavy_b1.00",
    "front_aggressive_b0.50",
    "action_7",
    "front_aggressive_b1.00",
    "entropy_proportional_b0.50",
    "entropy_proportional_b0.75",
    "entropy_proportional_b1.00",
    "entropy_sharp_b0.50",
    "entropy_sharp_b0.75",
    "entropy_sharp_b1.00"
  ],
  "weights": [
    [
      -3.2006676197052,
      -0.6782975792884827,
      -0.42084643244743347,
      0.4167899191379547,
      0.6229066848754883,
      -0.05936208739876747,
      0.15692375600337982,
      0.0,
      0.0,
      0.24897442758083344,
      0.021314343437552452
    ],
    [
      -3.421627998352051,
      -0.043236661702394485,
      -0.2688411474227905,
      0.2537347376346588,
      0.383262574672699,
      -0.16171328723430634,
      0.3182542622089386,
      0.0,
      0.0,
      0.25240930914878845,
      -2.5659148693084717
    ],
    [
      0.0,
      0.0,
      0.0,
      0.0,
      0.0,
      0.0,
      0.0,
      0.0,
      0.0,
      0.0,
      0.0
    ],
    [
      0.0,
      0.0,
      0.0,
      0.0,
      0.0,
      0.0,
      0.0,
      0.0,
      0.0,
      0.0,
      0.0
    ],
    [
      -2.7527456283569336,
      1.3254327774047852,
      0.0013088835403323174,
      -0.1460098773241043,
      -0.15400588512420654,
      0.40429192781448364,
      0.47161585092544556,
      0.0,
      0.0,
      -1.6916106939315796,
      0.4768499732017517
    ],
    [
      -3.369126558303833,
      0.6056313514709473,
      -0.13174903392791748,
      0.04000450298190117,
      0.09933553636074066,
      -0.2093024104833603,
      0.28029683232307434,
      0.0,
      0.0,
      0.17456640303134918,
      2.8945908546447754
    ],
    [
      -3.0039470195770264,
      -1.4462345838546753,
      -1.4328725337982178,
      -0.0642198845744133,
      0.5549349188804626,
      0.3220573365688324,
      0.4890342354774475,
      0.0,
      0.0,
      0.7260283827781677,
      2.0821826457977295
    ],
    [
      0.0,
      0.0,
      0.0,
      0.0,
      0.0,
      0.0,
      0.0,
      0.0,
      0.0,
      0.0,
      0.0
    ],
    [
      -3.441206455230713,
      1.1728432178497314,
      -0.8656532168388367,
      -0.7957091331481934,
      -0.4597223401069641,
      1.2205328941345215,
      -0.22448180615901947,
      0.0,
      0.0,
      0.5689299702644348,
      3.173827648162842
    ],
    [
      -1.8921170234680176,
      -2.576406478881836,
      -0.9772557616233826,
      0.2327176034450531,
      0.6689037680625916,
      0.19723039865493774,
      1.1740808486938477,
      0.0,
      0.0,
      -1.027262568473816,
      2.4873335361480713
    ],
    [
      -1.1744500398635864,
      -0.6414589881896973,
      -1.989945411682129,
      -0.4423816204071045,
      0.3997112512588501,
      -1.5744471549987793,
      -1.7209161520004272,
      0.0,
      0.0,
      1.1055876016616821,
      2.6693646907806396
    ],
    [
      -2.5370357036590576,
      -0.4639900028705597,
      -0.1685587465763092,
      0.8848574161529541,
      1.0025599002838135,
      -0.5396162271499634,
      0.8004661798477173,
      0.0,
      0.0,
      0.3488927483558655,
      2.294926404953003
    ],
    [
      -3.3950257301330566,
      -0.653756856918335,
      -0.16632261872291565,
      0.7552223801612854,
      0.8653992414474487,
      0.06568371504545212,
      0.2740563452243805,
      0.0,
      0.0,
      0.674627959728241,
      -0.11774354428052902
    ],
    [
      -2.7603726387023926,
      1.696929693222046,
      0.8784765005111694,
      -1.0246144533157349,
      -1.4577306509017944,
      -1.9158790111541748,
      -0.47855761647224426,
      0.0,
      0.0,
      -1.0001546144485474,
      4.433593273162842
    ],
    [
      -1.1103482246398926,
      1.7810546159744263,
      -2.2049050331115723,
      -0.875417172908783,
      0.03827907517552376,
      -0.7959654331207275,
      -0.36423760652542114,
      0.0,
      0.0,
      -0.5230563879013062,
      2.639362335205078
    ]
  ],
  "bias": [
    7.673834800720215,
    8.268718719482422,
    0.0,
    0.0,
    6.444466590881348,
    7.6967644691467285,
    6.520830154418945,
    0.0,
    7.460199356079102,
    7.354902267456055,
    7.642813682556152,
    6.255965232849121,
    7.054701805114746,
    6.344059944152832,
    5.469001770019531
  ],
  "feature_mean": [
    1.2039166688919067,
    0.6805481910705566,
    0.32866957783699036,
    1.96256422996521,
    0.11670679599046707,
    2.925884485244751,
    0.7383361458778381,
    128.0,
    15.0,
    8.129046440124512,
    15.950298309326172
  ],
  "feature_std": [
    0.8886773586273193,
    0.3453964591026306,
    0.5168150663375854,
    1.2496691942214966,
    0.0849880799651146,
    0.3104976415634155,
    0.18085141479969025,
    1.0,
    1.0,
    4.784013748168945,
    2.7451043128967285
  ],
  "metadata": {
    "num_records": 4541,
    "ridge_lambda": 1.0
  }
}